Language model created by QuickLM on Sun Sep 24 11:11:25 EDT 2017
Copyright (c) 1996-2010 Carnegie Mellon University and Alexander I. Rudnicky

The model is in standard ARPA format, designed by Doug Paul while he was at MITRE.

The code that was used to produce this language model is available in Open Source.
Please visit http://www.speech.cs.cmu.edu/tools/ for more information

The (fixed) discount mass is 0.5. The backoffs are computed using the ratio method.
This model based on a corpus of 1 sentences and 10 words

\data\
ngram 1=10
ngram 2=9
ngram 3=8

\1-grams:
-1.3010 </s> -0.3010
-1.3010 <s> -0.2788
-1.3010 CLEAR -0.2788
-1.3010 DEADENDS -0.2788
-1.3010 DOWN -0.2788
-1.3010 LEFT -0.2788
-1.3010 RECREATE -0.2788
-1.3010 RIGHT -0.2788
-1.3010 UP -0.2788
-1.3010 WAY -0.2788

\2-grams:
-0.3010 <s> UP 0.0000
-0.3010 CLEAR </s> -0.3010
-0.3010 DEADENDS WAY 0.0000
-0.3010 DOWN RIGHT 0.0000
-0.3010 LEFT RECREATE 0.0000
-0.3010 RECREATE DEADENDS 0.0000
-0.3010 RIGHT LEFT 0.0000
-0.3010 UP DOWN 0.0000
-0.3010 WAY CLEAR 0.0000

\3-grams:
-0.3010 <s> UP DOWN
-0.3010 DEADENDS WAY CLEAR
-0.3010 DOWN RIGHT LEFT
-0.3010 LEFT RECREATE DEADENDS
-0.3010 RECREATE DEADENDS WAY
-0.3010 RIGHT LEFT RECREATE
-0.3010 UP DOWN RIGHT
-0.3010 WAY CLEAR </s>

\end\